digraph Tree {
node [shape=box] ;
0 [label="X[2] <= 0.5\ngini = 0.469\nsamples = 712\nvalue = [444, 268]"] ;
1 [label="X[1] <= 2.5\ngini = 0.39\nsamples = 252\nvalue = [67, 185]"] ;
0 -> 1 [labeldistance=2.5, labelangle=45, headlabel="True"] ;
2 [label="X[3] <= 2.5\ngini = 0.1\nsamples = 133\nvalue = [7, 126]"] ;
1 -> 2 ;
3 [label="gini = 0.0\nsamples = 1\nvalue = [1, 0]"] ;
2 -> 3 ;
4 [label="X[6] <= 26.125\ngini = 0.087\nsamples = 132\nvalue = [6, 126]"] ;
2 -> 4 ;
5 [label="X[0] <= 48.0\ngini = 0.198\nsamples = 45\nvalue = [5, 40]"] ;
4 -> 5 ;
6 [label="gini = 0.0\nsamples = 1\nvalue = [1, 0]"] ;
5 -> 6 ;
7 [label="X[3] <= 55.5\ngini = 0.165\nsamples = 44\nvalue = [4, 40]"] ;
5 -> 7 ;
8 [label="X[4] <= 0.5\ngini = 0.13\nsamples = 43\nvalue = [3, 40]"] ;
7 -> 8 ;
9 [label="X[0] <= 206.0\ngini = 0.059\nsamples = 33\nvalue = [1, 32]"] ;
8 -> 9 ;
10 [label="X[0] <= 195.5\ngini = 0.245\nsamples = 7\nvalue = [1, 6]"] ;
9 -> 10 ;
11 [label="gini = 0.0\nsamples = 6\nvalue = [0, 6]"] ;
10 -> 11 ;
12 [label="gini = 0.0\nsamples = 1\nvalue = [1, 0]"] ;
10 -> 12 ;
13 [label="gini = 0.0\nsamples = 26\nvalue = [0, 26]"] ;
9 -> 13 ;
14 [label="X[5] <= 0.5\ngini = 0.32\nsamples = 10\nvalue = [2, 8]"] ;
8 -> 14 ;
15 [label="X[3] <= 43.0\ngini = 0.219\nsamples = 8\nvalue = [1, 7]"] ;
14 -> 15 ;
16 [label="gini = 0.0\nsamples = 7\nvalue = [0, 7]"] ;
15 -> 16 ;
17 [label="gini = 0.0\nsamples = 1\nvalue = [1, 0]"] ;
15 -> 17 ;
18 [label="X[0] <= 544.0\ngini = 0.5\nsamples = 2\nvalue = [1, 1]"] ;
14 -> 18 ;
19 [label="gini = 0.0\nsamples = 1\nvalue = [1, 0]"] ;
18 -> 19 ;
20 [label="gini = 0.0\nsamples = 1\nvalue = [0, 1]"] ;
18 -> 20 ;
21 [label="gini = 0.0\nsamples = 1\nvalue = [1, 0]"] ;
7 -> 21 ;
22 [label="X[6] <= 149.035\ngini = 0.023\nsamples = 87\nvalue = [1, 86]"] ;
4 -> 22 ;
23 [label="gini = 0.0\nsamples = 73\nvalue = [0, 73]"] ;
22 -> 23 ;
24 [label="X[6] <= 152.506\ngini = 0.133\nsamples = 14\nvalue = [1, 13]"] ;
22 -> 24 ;
25 [label="X[5] <= 1.0\ngini = 0.5\nsamples = 2\nvalue = [1, 1]"] ;
24 -> 25 ;
26 [label="gini = 0.0\nsamples = 1\nvalue = [0, 1]"] ;
25 -> 26 ;
27 [label="gini = 0.0\nsamples = 1\nvalue = [1, 0]"] ;
25 -> 27 ;
28 [label="gini = 0.0\nsamples = 12\nvalue = [0, 12]"] ;
24 -> 28 ;
29 [label="X[6] <= 23.35\ngini = 0.5\nsamples = 119\nvalue = [60, 59]"] ;
1 -> 29 ;
30 [label="X[6] <= 8.04\ngini = 0.484\nsamples = 95\nvalue = [39, 56]"] ;
29 -> 30 ;
31 [label="X[0] <= 387.0\ngini = 0.408\nsamples = 42\nvalue = [12, 30]"] ;
30 -> 31 ;
32 [label="X[3] <= 14.5\ngini = 0.211\nsamples = 25\nvalue = [3, 22]"] ;
31 -> 32 ;
33 [label="gini = 0.0\nsamples = 1\nvalue = [1, 0]"] ;
32 -> 33 ;
34 [label="X[3] <= 37.35\ngini = 0.153\nsamples = 24\nvalue = [2, 22]"] ;
32 -> 34 ;
35 [label="X[0] <= 241.0\ngini = 0.083\nsamples = 23\nvalue = [1, 22]"] ;
34 -> 35 ;
36 [label="gini = 0.0\nsamples = 15\nvalue = [0, 15]"] ;
35 -> 36 ;
37 [label="X[0] <= 270.0\ngini = 0.219\nsamples = 8\nvalue = [1, 7]"] ;
35 -> 37 ;
38 [label="gini = 0.0\nsamples = 1\nvalue = [1, 0]"] ;
37 -> 38 ;
39 [label="gini = 0.0\nsamples = 7\nvalue = [0, 7]"] ;
37 -> 39 ;
40 [label="gini = 0.0\nsamples = 1\nvalue = [1, 0]"] ;
34 -> 40 ;
41 [label="X[6] <= 7.842\ngini = 0.498\nsamples = 17\nvalue = [9, 8]"] ;
31 -> 41 ;
42 [label="X[0] <= 529.0\ngini = 0.49\nsamples = 14\nvalue = [6, 8]"] ;
41 -> 42 ;
43 [label="gini = 0.0\nsamples = 2\nvalue = [2, 0]"] ;
42 -> 43 ;
44 [label="X[5] <= 1.0\ngini = 0.444\nsamples = 12\nvalue = [4, 8]"] ;
42 -> 44 ;
45 [label="X[6] <= 6.99\ngini = 0.397\nsamples = 11\nvalue = [3, 8]"] ;
44 -> 45 ;
46 [label="gini = 0.0\nsamples = 1\nvalue = [1, 0]"] ;
45 -> 46 ;
47 [label="X[3] <= 30.1\ngini = 0.32\nsamples = 10\nvalue = [2, 8]"] ;
45 -> 47 ;
48 [label="X[0] <= 797.5\ngini = 0.198\nsamples = 9\nvalue = [1, 8]"] ;
47 -> 48 ;
49 [label="gini = 0.0\nsamples = 8\nvalue = [0, 8]"] ;
48 -> 49 ;
50 [label="gini = 0.0\nsamples = 1\nvalue = [1, 0]"] ;
48 -> 50 ;
51 [label="gini = 0.0\nsamples = 1\nvalue = [1, 0]"] ;
47 -> 51 ;
52 [label="gini = 0.0\nsamples = 1\nvalue = [1, 0]"] ;
44 -> 52 ;
53 [label="gini = 0.0\nsamples = 3\nvalue = [3, 0]"] ;
41 -> 53 ;
54 [label="X[3] <= 6.5\ngini = 0.5\nsamples = 53\nvalue = [27, 26]"] ;
30 -> 54 ;
55 [label="X[6] <= 10.798\ngini = 0.219\nsamples = 8\nvalue = [1, 7]"] ;
54 -> 55 ;
56 [label="gini = 0.0\nsamples = 1\nvalue = [1, 0]"] ;
55 -> 56 ;
57 [label="gini = 0.0\nsamples = 7\nvalue = [0, 7]"] ;
55 -> 57 ;
58 [label="X[0] <= 750.5\ngini = 0.488\nsamples = 45\nvalue = [26, 19]"] ;
54 -> 58 ;
59 [label="X[6] <= 15.373\ngini = 0.46\nsamples = 39\nvalue = [25, 14]"] ;
58 -> 59 ;
60 [label="X[0] <= 96.0\ngini = 0.308\nsamples = 21\nvalue = [17, 4]"] ;
59 -> 60 ;
61 [label="gini = 0.0\nsamples = 2\nvalue = [0, 2]"] ;
60 -> 61 ;
62 [label="X[3] <= 55.0\ngini = 0.188\nsamples = 19\nvalue = [17, 2]"] ;
60 -> 62 ;
63 [label="X[0] <= 621.5\ngini = 0.105\nsamples = 18\nvalue = [17, 1]"] ;
62 -> 63 ;
64 [label="gini = 0.0\nsamples = 15\nvalue = [15, 0]"] ;
63 -> 64 ;
65 [label="X[0] <= 679.5\ngini = 0.444\nsamples = 3\nvalue = [2, 1]"] ;
63 -> 65 ;
66 [label="gini = 0.0\nsamples = 1\nvalue = [0, 1]"] ;
65 -> 66 ;
67 [label="gini = 0.0\nsamples = 2\nvalue = [2, 0]"] ;
65 -> 67 ;
68 [label="gini = 0.0\nsamples = 1\nvalue = [0, 1]"] ;
62 -> 68 ;
69 [label="X[0] <= 68.0\ngini = 0.494\nsamples = 18\nvalue = [8, 10]"] ;
59 -> 69 ;
70 [label="gini = 0.0\nsamples = 4\nvalue = [4, 0]"] ;
69 -> 70 ;
71 [label="X[0] <= 481.5\ngini = 0.408\nsamples = 14\nvalue = [4, 10]"] ;
69 -> 71 ;
72 [label="X[3] <= 38.0\ngini = 0.18\nsamples = 10\nvalue = [1, 9]"] ;
71 -> 72 ;
73 [label="gini = 0.0\nsamples = 9\nvalue = [0, 9]"] ;
72 -> 73 ;
74 [label="gini = 0.0\nsamples = 1\nvalue = [1, 0]"] ;
72 -> 74 ;
75 [label="X[6] <= 15.8\ngini = 0.375\nsamples = 4\nvalue = [3, 1]"] ;
71 -> 75 ;
76 [label="X[0] <= 635.5\ngini = 0.5\nsamples = 2\nvalue = [1, 1]"] ;
75 -> 76 ;
77 [label="gini = 0.0\nsamples = 1\nvalue = [0, 1]"] ;
76 -> 77 ;
78 [label="gini = 0.0\nsamples = 1\nvalue = [1, 0]"] ;
76 -> 78 ;
79 [label="gini = 0.0\nsamples = 2\nvalue = [2, 0]"] ;
75 -> 79 ;
80 [label="X[3] <= 12.0\ngini = 0.278\nsamples = 6\nvalue = [1, 5]"] ;
58 -> 80 ;
81 [label="gini = 0.0\nsamples = 1\nvalue = [1, 0]"] ;
80 -> 81 ;
82 [label="gini = 0.0\nsamples = 5\nvalue = [0, 5]"] ;
80 -> 82 ;
83 [label="X[0] <= 115.0\ngini = 0.219\nsamples = 24\nvalue = [21, 3]"] ;
29 -> 83 ;
84 [label="gini = 0.0\nsamples = 2\nvalue = [0, 2]"] ;
83 -> 84 ;
85 [label="X[3] <= 5.5\ngini = 0.087\nsamples = 22\nvalue = [21, 1]"] ;
83 -> 85 ;
86 [label="X[6] <= 31.331\ngini = 0.5\nsamples = 2\nvalue = [1, 1]"] ;
85 -> 86 ;
87 [label="gini = 0.0\nsamples = 1\nvalue = [1, 0]"] ;
86 -> 87 ;
88 [label="gini = 0.0\nsamples = 1\nvalue = [0, 1]"] ;
86 -> 88 ;
89 [label="gini = 0.0\nsamples = 20\nvalue = [20, 0]"] ;
85 -> 89 ;
90 [label="X[1] <= 1.5\ngini = 0.296\nsamples = 460\nvalue = [377, 83]"] ;
0 -> 90 [labeldistance=2.5, labelangle=-45, headlabel="False"] ;
91 [label="X[0] <= 187.0\ngini = 0.461\nsamples = 100\nvalue = [64, 36]"] ;
90 -> 91 ;
92 [label="X[3] <= 33.35\ngini = 0.236\nsamples = 22\nvalue = [19, 3]"] ;
91 -> 92 ;
93 [label="X[0] <= 26.0\ngini = 0.397\nsamples = 11\nvalue = [8, 3]"] ;
92 -> 93 ;
94 [label="gini = 0.0\nsamples = 1\nvalue = [0, 1]"] ;
93 -> 94 ;
95 [label="X[0] <= 108.5\ngini = 0.32\nsamples = 10\nvalue = [8, 2]"] ;
93 -> 95 ;
96 [label="X[0] <= 91.0\ngini = 0.444\nsamples = 6\nvalue = [4, 2]"] ;
95 -> 96 ;
97 [label="X[6] <= 41.3\ngini = 0.32\nsamples = 5\nvalue = [4, 1]"] ;
96 -> 97 ;
98 [label="X[6] <= 31.61\ngini = 0.5\nsamples = 2\nvalue = [1, 1]"] ;
97 -> 98 ;
99 [label="gini = 0.0\nsamples = 1\nvalue = [1, 0]"] ;
98 -> 99 ;
100 [label="gini = 0.0\nsamples = 1\nvalue = [0, 1]"] ;
98 -> 100 ;
101 [label="gini = 0.0\nsamples = 3\nvalue = [3, 0]"] ;
97 -> 101 ;
102 [label="gini = 0.0\nsamples = 1\nvalue = [0, 1]"] ;
96 -> 102 ;
103 [label="gini = 0.0\nsamples = 4\nvalue = [4, 0]"] ;
95 -> 103 ;
104 [label="gini = 0.0\nsamples = 11\nvalue = [11, 0]"] ;
92 -> 104 ;
105 [label="X[3] <= 28.5\ngini = 0.488\nsamples = 78\nvalue = [45, 33]"] ;
91 -> 105 ;
106 [label="X[3] <= 22.0\ngini = 0.298\nsamples = 11\nvalue = [2, 9]"] ;
105 -> 106 ;
107 [label="X[6] <= 109.892\ngini = 0.48\nsamples = 5\nvalue = [2, 3]"] ;
106 -> 107 ;
108 [label="gini = 0.0\nsamples = 2\nvalue = [2, 0]"] ;
107 -> 108 ;
109 [label="gini = 0.0\nsamples = 3\nvalue = [0, 3]"] ;
107 -> 109 ;
110 [label="gini = 0.0\nsamples = 6\nvalue = [0, 6]"] ;
106 -> 110 ;
111 [label="X[0] <= 235.5\ngini = 0.46\nsamples = 67\nvalue = [43, 24]"] ;
105 -> 111 ;
112 [label="gini = 0.0\nsamples = 3\nvalue = [0, 3]"] ;
111 -> 112 ;
113 [label="X[6] <= 26.144\ngini = 0.441\nsamples = 64\nvalue = [43, 21]"] ;
111 -> 113 ;
114 [label="gini = 0.0\nsamples = 7\nvalue = [7, 0]"] ;
113 -> 114 ;
115 [label="X[6] <= 26.469\ngini = 0.465\nsamples = 57\nvalue = [36, 21]"] ;
113 -> 115 ;
116 [label="gini = 0.0\nsamples = 3\nvalue = [0, 3]"] ;
115 -> 116 ;
117 [label="X[0] <= 817.0\ngini = 0.444\nsamples = 54\nvalue = [36, 18]"] ;
115 -> 117 ;
118 [label="X[0] <= 741.5\ngini = 0.426\nsamples = 52\nvalue = [36, 16]"] ;
117 -> 118 ;
119 [label="X[0] <= 586.0\ngini = 0.454\nsamples = 46\nvalue = [30, 16]"] ;
118 -> 119 ;
120 [label="X[0] <= 462.0\ngini = 0.35\nsamples = 31\nvalue = [24, 7]"] ;
119 -> 120 ;
121 [label="X[0] <= 443.5\ngini = 0.444\nsamples = 18\nvalue = [12, 6]"] ;
120 -> 121 ;
122 [label="X[3] <= 37.5\ngini = 0.26\nsamples = 13\nvalue = [11, 2]"] ;
121 -> 122 ;
123 [label="X[4] <= 0.5\ngini = 0.444\nsamples = 6\nvalue = [4, 2]"] ;
122 -> 123 ;
124 [label="X[0] <= 297.5\ngini = 0.32\nsamples = 5\nvalue = [4, 1]"] ;
123 -> 124 ;
125 [label="gini = 0.0\nsamples = 3\nvalue = [3, 0]"] ;
124 -> 125 ;
126 [label="X[0] <= 325.5\ngini = 0.5\nsamples = 2\nvalue = [1, 1]"] ;
124 -> 126 ;
127 [label="gini = 0.0\nsamples = 1\nvalue = [0, 1]"] ;
126 -> 127 ;
128 [label="gini = 0.0\nsamples = 1\nvalue = [1, 0]"] ;
126 -> 128 ;
129 [label="gini = 0.0\nsamples = 1\nvalue = [0, 1]"] ;
123 -> 129 ;
130 [label="gini = 0.0\nsamples = 7\nvalue = [7, 0]"] ;
122 -> 130 ;
131 [label="X[3] <= 32.0\ngini = 0.32\nsamples = 5\nvalue = [1, 4]"] ;
121 -> 131 ;
132 [label="gini = 0.0\nsamples = 1\nvalue = [1, 0]"] ;
131 -> 132 ;
133 [label="gini = 0.0\nsamples = 4\nvalue = [0, 4]"] ;
131 -> 133 ;
134 [label="X[6] <= 28.525\ngini = 0.142\nsamples = 13\nvalue = [12, 1]"] ;
120 -> 134 ;
135 [label="X[3] <= 37.35\ngini = 0.375\nsamples = 4\nvalue = [3, 1]"] ;
134 -> 135 ;
136 [label="gini = 0.0\nsamples = 1\nvalue = [0, 1]"] ;
135 -> 136 ;
137 [label="gini = 0.0\nsamples = 3\nvalue = [3, 0]"] ;
135 -> 137 ;
138 [label="gini = 0.0\nsamples = 9\nvalue = [9, 0]"] ;
134 -> 138 ;
139 [label="X[0] <= 654.0\ngini = 0.48\nsamples = 15\nvalue = [6, 9]"] ;
119 -> 139 ;
140 [label="X[3] <= 30.85\ngini = 0.245\nsamples = 7\nvalue = [1, 6]"] ;
139 -> 140 ;
141 [label="gini = 0.0\nsamples = 1\nvalue = [1, 0]"] ;
140 -> 141 ;
142 [label="gini = 0.0\nsamples = 6\nvalue = [0, 6]"] ;
140 -> 142 ;
143 [label="X[3] <= 42.5\ngini = 0.469\nsamples = 8\nvalue = [5, 3]"] ;
139 -> 143 ;
144 [label="X[6] <= 54.5\ngini = 0.48\nsamples = 5\nvalue = [2, 3]"] ;
143 -> 144 ;
145 [label="X[0] <= 726.5\ngini = 0.444\nsamples = 3\nvalue = [2, 1]"] ;
144 -> 145 ;
146 [label="gini = 0.0\nsamples = 2\nvalue = [2, 0]"] ;
145 -> 146 ;
147 [label="gini = 0.0\nsamples = 1\nvalue = [0, 1]"] ;
145 -> 147 ;
148 [label="gini = 0.0\nsamples = 2\nvalue = [0, 2]"] ;
144 -> 148 ;
149 [label="gini = 0.0\nsamples = 3\nvalue = [3, 0]"] ;
143 -> 149 ;
150 [label="gini = 0.0\nsamples = 6\nvalue = [6, 0]"] ;
118 -> 150 ;
151 [label="gini = 0.0\nsamples = 2\nvalue = [0, 2]"] ;
117 -> 151 ;
152 [label="X[3] <= 3.5\ngini = 0.227\nsamples = 360\nvalue = [313, 47]"] ;
90 -> 152 ;
153 [label="X[4] <= 2.5\ngini = 0.444\nsamples = 12\nvalue = [4, 8]"] ;
152 -> 153 ;
154 [label="gini = 0.0\nsamples = 7\nvalue = [0, 7]"] ;
153 -> 154 ;
155 [label="X[3] <= 2.5\ngini = 0.32\nsamples = 5\nvalue = [4, 1]"] ;
153 -> 155 ;
156 [label="gini = 0.0\nsamples = 4\nvalue = [4, 0]"] ;
155 -> 156 ;
157 [label="gini = 0.0\nsamples = 1\nvalue = [0, 1]"] ;
155 -> 157 ;
158 [label="X[3] <= 32.25\ngini = 0.199\nsamples = 348\nvalue = [309, 39]"] ;
152 -> 158 ;
159 [label="X[3] <= 31.5\ngini = 0.233\nsamples = 260\nvalue = [225, 35]"] ;
158 -> 159 ;
160 [label="X[0] <= 302.5\ngini = 0.211\nsamples = 250\nvalue = [220, 30]"] ;
159 -> 160 ;
161 [label="X[0] <= 283.5\ngini = 0.3\nsamples = 87\nvalue = [71, 16]"] ;
160 -> 161 ;
162 [label="X[6] <= 20.55\ngini = 0.264\nsamples = 83\nvalue = [70, 13]"] ;
161 -> 162 ;
163 [label="X[6] <= 17.144\ngini = 0.309\nsamples = 68\nvalue = [55, 13]"] ;
162 -> 163 ;
164 [label="X[3] <= 14.0\ngini = 0.278\nsamples = 66\nvalue = [55, 11]"] ;
163 -> 164 ;
165 [label="gini = 0.0\nsamples = 1\nvalue = [0, 1]"] ;
164 -> 165 ;
166 [label="X[6] <= 7.24\ngini = 0.26\nsamples = 65\nvalue = [55, 10]"] ;
164 -> 166 ;
167 [label="X[3] <= 23.0\ngini = 0.444\nsamples = 9\nvalue = [6, 3]"] ;
166 -> 167 ;
168 [label="gini = 0.0\nsamples = 3\nvalue = [3, 0]"] ;
167 -> 168 ;
169 [label="X[3] <= 26.75\ngini = 0.5\nsamples = 6\nvalue = [3, 3]"] ;
167 -> 169 ;
170 [label="gini = 0.0\nsamples = 2\nvalue = [0, 2]"] ;
169 -> 170 ;
171 [label="X[6] <= 7.227\ngini = 0.375\nsamples = 4\nvalue = [3, 1]"] ;
169 -> 171 ;
172 [label="gini = 0.0\nsamples = 2\nvalue = [2, 0]"] ;
171 -> 172 ;
173 [label="X[0] <= 47.5\ngini = 0.5\nsamples = 2\nvalue = [1, 1]"] ;
171 -> 173 ;
174 [label="gini = 0.0\nsamples = 1\nvalue = [0, 1]"] ;
173 -> 174 ;
175 [label="gini = 0.0\nsamples = 1\nvalue = [1, 0]"] ;
173 -> 175 ;
176 [label="X[5] <= 0.5\ngini = 0.219\nsamples = 56\nvalue = [49, 7]"] ;
166 -> 176 ;
177 [label="X[3] <= 18.5\ngini = 0.198\nsamples = 54\nvalue = [48, 6]"] ;
176 -> 177 ;
178 [label="X[6] <= 8.356\ngini = 0.444\nsamples = 6\nvalue = [4, 2]"] ;
177 -> 178 ;
179 [label="gini = 0.0\nsamples = 2\nvalue = [0, 2]"] ;
178 -> 179 ;
180 [label="gini = 0.0\nsamples = 4\nvalue = [4, 0]"] ;
178 -> 180 ;
181 [label="X[0] <= 151.0\ngini = 0.153\nsamples = 48\nvalue = [44, 4]"] ;
177 -> 181 ;
182 [label="X[0] <= 141.5\ngini = 0.252\nsamples = 27\nvalue = [23, 4]"] ;
181 -> 182 ;
183 [label="X[6] <= 9.25\ngini = 0.204\nsamples = 26\nvalue = [23, 3]"] ;
182 -> 183 ;
184 [label="X[6] <= 7.788\ngini = 0.095\nsamples = 20\nvalue = [19, 1]"] ;
183 -> 184 ;
185 [label="X[6] <= 7.763\ngini = 0.444\nsamples = 3\nvalue = [2, 1]"] ;
184 -> 185 ;
186 [label="gini = 0.0\nsamples = 2\nvalue = [2, 0]"] ;
185 -> 186 ;
187 [label="gini = 0.0\nsamples = 1\nvalue = [0, 1]"] ;
185 -> 187 ;
188 [label="gini = 0.0\nsamples = 17\nvalue = [17, 0]"] ;
184 -> 188 ;
189 [label="X[6] <= 13.727\ngini = 0.444\nsamples = 6\nvalue = [4, 2]"] ;
183 -> 189 ;
190 [label="X[3] <= 27.0\ngini = 0.444\nsamples = 3\nvalue = [1, 2]"] ;
189 -> 190 ;
191 [label="gini = 0.0\nsamples = 1\nvalue = [1, 0]"] ;
190 -> 191 ;
192 [label="gini = 0.0\nsamples = 2\nvalue = [0, 2]"] ;
190 -> 192 ;
193 [label="gini = 0.0\nsamples = 3\nvalue = [3, 0]"] ;
189 -> 193 ;
194 [label="gini = 0.0\nsamples = 1\nvalue = [0, 1]"] ;
182 -> 194 ;
195 [label="gini = 0.0\nsamples = 21\nvalue = [21, 0]"] ;
181 -> 195 ;
196 [label="X[3] <= 23.85\ngini = 0.5\nsamples = 2\nvalue = [1, 1]"] ;
176 -> 196 ;
197 [label="gini = 0.0\nsamples = 1\nvalue = [1, 0]"] ;
196 -> 197 ;
198 [label="gini = 0.0\nsamples = 1\nvalue = [0, 1]"] ;
196 -> 198 ;
199 [label="gini = 0.0\nsamples = 2\nvalue = [0, 2]"] ;
163 -> 199 ;
200 [label="gini = 0.0\nsamples = 15\nvalue = [15, 0]"] ;
162 -> 200 ;
201 [label="X[6] <= 7.973\ngini = 0.375\nsamples = 4\nvalue = [1, 3]"] ;
161 -> 201 ;
202 [label="gini = 0.0\nsamples = 1\nvalue = [1, 0]"] ;
201 -> 202 ;
203 [label="gini = 0.0\nsamples = 3\nvalue = [0, 3]"] ;
201 -> 203 ;
204 [label="X[3] <= 9.5\ngini = 0.157\nsamples = 163\nvalue = [149, 14]"] ;
160 -> 204 ;
205 [label="X[4] <= 2.5\ngini = 0.48\nsamples = 5\nvalue = [3, 2]"] ;
204 -> 205 ;
206 [label="gini = 0.0\nsamples = 2\nvalue = [0, 2]"] ;
205 -> 206 ;
207 [label="gini = 0.0\nsamples = 3\nvalue = [3, 0]"] ;
205 -> 207 ;
208 [label="X[3] <= 19.5\ngini = 0.14\nsamples = 158\nvalue = [146, 12]"] ;
204 -> 208 ;
209 [label="gini = 0.0\nsamples = 26\nvalue = [26, 0]"] ;
208 -> 209 ;
210 [label="X[3] <= 20.5\ngini = 0.165\nsamples = 132\nvalue = [120, 12]"] ;
208 -> 210 ;
211 [label="X[4] <= 0.5\ngini = 0.444\nsamples = 9\nvalue = [6, 3]"] ;
210 -> 211 ;
212 [label="X[6] <= 7.542\ngini = 0.245\nsamples = 7\nvalue = [6, 1]"] ;
211 -> 212 ;
213 [label="X[6] <= 5.621\ngini = 0.5\nsamples = 2\nvalue = [1, 1]"] ;
212 -> 213 ;
214 [label="gini = 0.0\nsamples = 1\nvalue = [1, 0]"] ;
213 -> 214 ;
215 [label="gini = 0.0\nsamples = 1\nvalue = [0, 1]"] ;
213 -> 215 ;
216 [label="gini = 0.0\nsamples = 5\nvalue = [5, 0]"] ;
212 -> 216 ;
217 [label="gini = 0.0\nsamples = 2\nvalue = [0, 2]"] ;
211 -> 217 ;
218 [label="X[0] <= 802.0\ngini = 0.136\nsamples = 123\nvalue = [114, 9]"] ;
210 -> 218 ;
219 [label="X[6] <= 49.038\ngini = 0.11\nsamples = 103\nvalue = [97, 6]"] ;
218 -> 219 ;
220 [label="X[3] <= 30.5\ngini = 0.095\nsamples = 100\nvalue = [95, 5]"] ;
219 -> 220 ;
221 [label="X[0] <= 550.0\ngini = 0.08\nsamples = 96\nvalue = [92, 4]"] ;
220 -> 221 ;
222 [label="X[0] <= 543.5\ngini = 0.14\nsamples = 53\nvalue = [49, 4]"] ;
221 -> 222 ;
223 [label="X[3] <= 29.35\ngini = 0.109\nsamples = 52\nvalue = [49, 3]"] ;
222 -> 223 ;
224 [label="X[3] <= 28.5\ngini = 0.204\nsamples = 26\nvalue = [23, 3]"] ;
223 -> 224 ;
225 [label="X[3] <= 21.5\ngini = 0.087\nsamples = 22\nvalue = [21, 1]"] ;
224 -> 225 ;
226 [label="X[0] <= 400.5\ngini = 0.375\nsamples = 4\nvalue = [3, 1]"] ;
225 -> 226 ;
227 [label="gini = 0.0\nsamples = 1\nvalue = [0, 1]"] ;
226 -> 227 ;
228 [label="gini = 0.0\nsamples = 3\nvalue = [3, 0]"] ;
226 -> 228 ;
229 [label="gini = 0.0\nsamples = 18\nvalue = [18, 0]"] ;
225 -> 229 ;
230 [label="X[4] <= 0.5\ngini = 0.5\nsamples = 4\nvalue = [2, 2]"] ;
224 -> 230 ;
231 [label="gini = 0.0\nsamples = 2\nvalue = [0, 2]"] ;
230 -> 231 ;
232 [label="gini = 0.0\nsamples = 2\nvalue = [2, 0]"] ;
230 -> 232 ;
233 [label="gini = 0.0\nsamples = 26\nvalue = [26, 0]"] ;
223 -> 233 ;
234 [label="gini = 0.0\nsamples = 1\nvalue = [0, 1]"] ;
222 -> 234 ;
235 [label="gini = 0.0\nsamples = 43\nvalue = [43, 0]"] ;
221 -> 235 ;
236 [label="X[0] <= 656.0\ngini = 0.375\nsamples = 4\nvalue = [3, 1]"] ;
220 -> 236 ;
237 [label="gini = 0.0\nsamples = 2\nvalue = [2, 0]"] ;
236 -> 237 ;
238 [label="X[0] <= 712.0\ngini = 0.5\nsamples = 2\nvalue = [1, 1]"] ;
236 -> 238 ;
239 [label="gini = 0.0\nsamples = 1\nvalue = [0, 1]"] ;
238 -> 239 ;
240 [label="gini = 0.0\nsamples = 1\nvalue = [1, 0]"] ;
238 -> 240 ;
241 [label="X[0] <= 674.5\ngini = 0.444\nsamples = 3\nvalue = [2, 1]"] ;
219 -> 241 ;
242 [label="gini = 0.0\nsamples = 2\nvalue = [2, 0]"] ;
241 -> 242 ;
243 [label="gini = 0.0\nsamples = 1\nvalue = [0, 1]"] ;
241 -> 243 ;
244 [label="X[0] <= 808.0\ngini = 0.255\nsamples = 20\nvalue = [17, 3]"] ;
218 -> 244 ;
245 [label="gini = 0.0\nsamples = 1\nvalue = [0, 1]"] ;
244 -> 245 ;
246 [label="X[0] <= 831.0\ngini = 0.188\nsamples = 19\nvalue = [17, 2]"] ;
244 -> 246 ;
247 [label="X[0] <= 828.0\ngini = 0.408\nsamples = 7\nvalue = [5, 2]"] ;
246 -> 247 ;
248 [label="X[3] <= 28.35\ngini = 0.278\nsamples = 6\nvalue = [5, 1]"] ;
247 -> 248 ;
249 [label="X[3] <= 26.5\ngini = 0.5\nsamples = 2\nvalue = [1, 1]"] ;
248 -> 249 ;
250 [label="gini = 0.0\nsamples = 1\nvalue = [1, 0]"] ;
249 -> 250 ;
251 [label="gini = 0.0\nsamples = 1\nvalue = [0, 1]"] ;
249 -> 251 ;
252 [label="gini = 0.0\nsamples = 4\nvalue = [4, 0]"] ;
248 -> 252 ;
253 [label="gini = 0.0\nsamples = 1\nvalue = [0, 1]"] ;
247 -> 253 ;
254 [label="gini = 0.0\nsamples = 12\nvalue = [12, 0]"] ;
246 -> 254 ;
255 [label="X[1] <= 2.5\ngini = 0.5\nsamples = 10\nvalue = [5, 5]"] ;
159 -> 255 ;
256 [label="gini = 0.0\nsamples = 2\nvalue = [2, 0]"] ;
255 -> 256 ;
257 [label="X[0] <= 865.0\ngini = 0.469\nsamples = 8\nvalue = [3, 5]"] ;
255 -> 257 ;
258 [label="X[6] <= 32.429\ngini = 0.408\nsamples = 7\nvalue = [2, 5]"] ;
257 -> 258 ;
259 [label="X[0] <= 406.5\ngini = 0.48\nsamples = 5\nvalue = [2, 3]"] ;
258 -> 259 ;
260 [label="gini = 0.0\nsamples = 1\nvalue = [1, 0]"] ;
259 -> 260 ;
261 [label="X[0] <= 675.0\ngini = 0.375\nsamples = 4\nvalue = [1, 3]"] ;
259 -> 261 ;
262 [label="gini = 0.0\nsamples = 3\nvalue = [0, 3]"] ;
261 -> 262 ;
263 [label="gini = 0.0\nsamples = 1\nvalue = [1, 0]"] ;
261 -> 263 ;
264 [label="gini = 0.0\nsamples = 2\nvalue = [0, 2]"] ;
258 -> 264 ;
265 [label="gini = 0.0\nsamples = 1\nvalue = [1, 0]"] ;
257 -> 265 ;
266 [label="X[3] <= 61.5\ngini = 0.087\nsamples = 88\nvalue = [84, 4]"] ;
158 -> 266 ;
267 [label="X[0] <= 433.0\ngini = 0.07\nsamples = 83\nvalue = [80, 3]"] ;
266 -> 267 ;
268 [label="X[0] <= 399.5\ngini = 0.142\nsamples = 39\nvalue = [36, 3]"] ;
267 -> 268 ;
269 [label="X[0] <= 287.5\ngini = 0.054\nsamples = 36\nvalue = [35, 1]"] ;
268 -> 269 ;
270 [label="gini = 0.0\nsamples = 27\nvalue = [27, 0]"] ;
269 -> 270 ;
271 [label="X[0] <= 291.0\ngini = 0.198\nsamples = 9\nvalue = [8, 1]"] ;
269 -> 271 ;
272 [label="gini = 0.0\nsamples = 1\nvalue = [0, 1]"] ;
271 -> 272 ;
273 [label="gini = 0.0\nsamples = 8\nvalue = [8, 0]"] ;
271 -> 273 ;
274 [label="X[6] <= 7.838\ngini = 0.444\nsamples = 3\nvalue = [1, 2]"] ;
268 -> 274 ;
275 [label="gini = 0.0\nsamples = 1\nvalue = [1, 0]"] ;
274 -> 275 ;
276 [label="gini = 0.0\nsamples = 2\nvalue = [0, 2]"] ;
274 -> 276 ;
277 [label="gini = 0.0\nsamples = 44\nvalue = [44, 0]"] ;
267 -> 277 ;
278 [label="X[3] <= 63.5\ngini = 0.32\nsamples = 5\nvalue = [4, 1]"] ;
266 -> 278 ;
279 [label="gini = 0.0\nsamples = 1\nvalue = [0, 1]"] ;
278 -> 279 ;
280 [label="gini = 0.0\nsamples = 4\nvalue = [4, 0]"] ;
278 -> 280 ;
}
